Language model created by QuickLM on Mon Aug 12 06:25:03 EDT 2019
Copyright (c) 1996-2010 Carnegie Mellon University and Alexander I. Rudnicky

The model is in standard ARPA format, designed by Doug Paul while he was at MITRE.

The code that was used to produce this language model is available in Open Source.
Please visit http://www.speech.cs.cmu.edu/tools/ for more information

The (fixed) discount mass is 0.5. The backoffs are computed using the ratio method.
This model based on a corpus of 5 sentences and 14 words

\data\
ngram 1=14
ngram 2=22
ngram 3=30

\1-grams:
-1.3345 </s> -0.3010
-1.3345 <s> -0.2804
-2.0334 AND -0.2544
-2.0334 BALL. -0.2804
-2.0334 BEHIND -0.2544
-2.0334 BETWEEN -0.2544
-1.3345 BLUE -0.2544
-1.2553 CUBE -0.2762
-1.4314 CUBE. -0.2804
-1.5563 ON -0.2544
-1.3345 PUT -0.2544
-1.4314 RED -0.2588
-0.9920 THE -0.2544
-1.7324 YELLOW -0.2588

\2-grams:
-0.3010 <s> PUT 0.0000
-0.3010 AND THE -0.2596
-0.3010 BALL. </s> -0.3010
-0.3010 BEHIND THE -0.1891
-0.3010 BETWEEN THE -0.1891
-1.0000 BLUE BALL. 0.0000
-0.6990 BLUE CUBE -0.1249
-0.6990 BLUE CUBE. 0.0000
-1.0792 CUBE AND 0.0000
-1.0792 CUBE BEHIND 0.0000
-1.0792 CUBE BETWEEN 0.0000
-0.6021 CUBE ON 0.0000
-0.3010 CUBE. </s> -0.3010
-0.3010 ON THE -0.0726
-0.3010 PUT THE 0.0000
-0.4260 RED CUBE -0.0669
-0.9031 RED CUBE. 0.0000
-0.6435 THE BLUE 0.0000
-0.7404 THE RED 0.0000
-1.0414 THE YELLOW 0.0000
-0.6021 YELLOW CUBE -0.1761
-0.6021 YELLOW CUBE. 0.0000

\3-grams:
-0.3010 <s> PUT THE
-0.3010 AND THE YELLOW
-0.3010 BEHIND THE BLUE
-0.3010 BETWEEN THE BLUE
-0.3010 BLUE BALL. </s>
-0.6021 BLUE CUBE AND
-0.6021 BLUE CUBE ON
-0.3010 BLUE CUBE. </s>
-0.3010 CUBE AND THE
-0.3010 CUBE BEHIND THE
-0.3010 CUBE BETWEEN THE
-0.3010 CUBE ON THE
-0.4771 ON THE BLUE
-0.7782 ON THE RED
-1.0000 PUT THE BLUE
-0.5229 PUT THE RED
-1.0000 PUT THE YELLOW
-0.7782 RED CUBE BEHIND
-0.7782 RED CUBE BETWEEN
-0.7782 RED CUBE ON
-0.3010 RED CUBE. </s>
-1.0000 THE BLUE BALL.
-0.6990 THE BLUE CUBE
-0.6990 THE BLUE CUBE.
-0.4260 THE RED CUBE
-0.9031 THE RED CUBE.
-0.6021 THE YELLOW CUBE
-0.6021 THE YELLOW CUBE.
-0.3010 YELLOW CUBE ON
-0.3010 YELLOW CUBE. </s>

\end\
