Language model created by QuickLM on Tue Aug 13 04:46:18 EDT 2019
Copyright (c) 1996-2010 Carnegie Mellon University and Alexander I. Rudnicky

The model is in standard ARPA format, designed by Doug Paul while he was at MITRE.

The code that was used to produce this language model is available in Open Source.
Please visit http://www.speech.cs.cmu.edu/tools/ for more information

The (fixed) discount mass is 0.5. The backoffs are computed using the ratio method.
This model based on a corpus of 12 sentences and 12 words

\data\
ngram 1=12
ngram 2=22
ngram 3=33

\1-grams:
-1.3010 </s> -0.3010
-1.3010 <s> -0.2788
-1.6021 BLOCK -0.2788
-1.6021 BLOCK. -0.2788
-1.4771 BLUE -0.2553
-1.6021 CUBE -0.2788
-1.6021 CUBE. -0.2788
-1.3010 ON -0.2553
-1.3010 PUT -0.2553
-1.4771 RED -0.2553
-1.0000 THE -0.2553
-1.4771 YELLOW -0.2553

\2-grams:
-0.3010 <s> PUT 0.0000
-0.3010 BLOCK ON 0.0000
-0.3010 BLOCK. </s> -0.3010
-0.9031 BLUE BLOCK 0.0000
-0.9031 BLUE BLOCK. 0.0000
-0.9031 BLUE CUBE 0.0000
-0.9031 BLUE CUBE. 0.0000
-0.3010 CUBE ON 0.0000
-0.3010 CUBE. </s> -0.3010
-0.3010 ON THE 0.0000
-0.3010 PUT THE 0.0000
-0.9031 RED BLOCK 0.0000
-0.9031 RED BLOCK. 0.0000
-0.9031 RED CUBE 0.0000
-0.9031 RED CUBE. 0.0000
-0.7782 THE BLUE 0.0000
-0.7782 THE RED 0.0000
-0.7782 THE YELLOW 0.0000
-0.9031 YELLOW BLOCK 0.0000
-0.9031 YELLOW BLOCK. 0.0000
-0.9031 YELLOW CUBE 0.0000
-0.9031 YELLOW CUBE. 0.0000

\3-grams:
-0.3010 <s> PUT THE
-0.3010 BLOCK ON THE
-0.3010 BLUE BLOCK ON
-0.3010 BLUE BLOCK. </s>
-0.3010 BLUE CUBE ON
-0.3010 BLUE CUBE. </s>
-0.3010 CUBE ON THE
-0.7782 ON THE BLUE
-0.7782 ON THE RED
-0.7782 ON THE YELLOW
-0.7782 PUT THE BLUE
-0.7782 PUT THE RED
-0.7782 PUT THE YELLOW
-0.3010 RED BLOCK ON
-0.3010 RED BLOCK. </s>
-0.3010 RED CUBE ON
-0.3010 RED CUBE. </s>
-0.9031 THE BLUE BLOCK
-0.9031 THE BLUE BLOCK.
-0.9031 THE BLUE CUBE
-0.9031 THE BLUE CUBE.
-0.9031 THE RED BLOCK
-0.9031 THE RED BLOCK.
-0.9031 THE RED CUBE
-0.9031 THE RED CUBE.
-0.9031 THE YELLOW BLOCK
-0.9031 THE YELLOW BLOCK.
-0.9031 THE YELLOW CUBE
-0.9031 THE YELLOW CUBE.
-0.3010 YELLOW BLOCK ON
-0.3010 YELLOW BLOCK. </s>
-0.3010 YELLOW CUBE ON
-0.3010 YELLOW CUBE. </s>

\end\
